34 128
34 -0.08454223 0.07906339 0.04768181 -0.13991725 0.073432386 0.31430298 -0.09034058 0.05233204 -0.046254512 0.13871197 0.039006297 -0.16472314 0.03582348 -0.1437851 -0.0142816575 -0.2910789 -0.17079319 -0.0146276085 0.1372747 0.085700914 -0.02846402 0.15668708 0.013203474 -0.091054305 -0.06934978 0.06509639 0.07435451 -0.15156466 -0.07462046 -0.044964407 -0.06829032 -0.13307612 0.07432011 0.039578736 0.17943944 0.07333824 -0.0711662 -0.024467008 -0.09635486 0.11229045 -0.06039083 0.102557085 0.09084122 -0.031101095 -0.046398494 0.035612855 0.17630039 -0.21048729 -0.04006602 -0.046361968 0.23908925 -0.0158651 -0.01857609 0.061621252 -0.19889036 -0.103809796 0.08863507 0.15822773 -0.06549225 -0.012624347 -0.1264423 0.104071 -0.088109605 -0.009855194 -0.229685 -0.074287534 -0.08037722 -0.013086571 0.1704425 0.17632173 -0.03829547 0.004506219 0.13759245 0.092516996 0.108695254 -0.054123618 -0.15792625 -0.00598452 -0.05550184 -0.013161336 -0.19359666 -0.14248176 0.040450472 0.24334988 -0.16365956 0.010093987 -0.09782426 0.071064726 0.022103399 -0.013763188 0.027015656 -0.11141049 -0.05173363 0.01700532 -0.017990503 0.041735027 0.025347846 0.012399792 -0.12682968 -0.0644697 0.015550085 0.09478554 0.1860606 0.09717366 0.16438527 0.06013016 0.19085625 -0.11951674 0.049842548 0.0455157 -0.06865165 -0.01313661 -0.11239576 0.1412835 -0.17903182 -0.2068737 0.062141296 0.021082573 -0.1705771 0.0857996 0.109837666 -0.17545508 -0.06938239 0.08657342 -0.19672208 -0.02923869 -0.1659012 0.08026593
1 -0.083196394 0.078675136 0.055434797 -0.18325877 0.07322622 0.31514293 0.011121264 -0.0785228 0.016044863 0.10845123 0.068951935 -0.13720681 -0.0544633 -0.15178224 0.027958222 -0.12979783 -0.006032603 0.05995435 0.11366916 -0.01415224 -0.06253858 0.17711386 0.060317513 0.004146617 -0.06365701 0.041313294 -0.057913814 -0.03786229 0.0557415 -0.08754411 0.10454034 -0.027334988 0.1439606 -0.032491025 0.12970373 0.015592109 -0.0947503 -0.11236837 -0.02853724 0.045340434 0.0015701758 0.05475624 0.0974583 -0.0589092 -0.07362628 -0.04430791 0.060584236 -0.2283144 0.0042268876 -0.018326193 0.21049558 -0.08116324 -0.069572575 0.035980813 -0.12045773 -0.102249704 0.13365598 0.13468485 -0.15994664 -0.06194705 -0.11933681 0.13510281 0.07324118 0.044021826 -0.1264528 -0.13989936 -0.011856413 -0.11324584 0.0814553 0.2199202 -0.025733687 -0.024830729 0.10513794 0.14159456 0.16868255 -0.006634702 0.005286772 -0.0034547288 0.04245386 0.22632481 -0.11363396 -0.09424139 0.009899529 0.13618217 -0.20571306 0.086192675 0.035157427 -0.019162288 -0.009871851 -0.018640464 -0.09560341 -0.11252736 0.078291915 0.092609525 0.104007736 0.18378678 -0.030977614 0.04630383 -0.105722085 -0.09698944 -0.05820616 0.092016414 -0.004475361 0.033672675 0.023799289 0.074347354 0.16296056 -0.07934158 0.080235705 -0.03838655 -0.022529192 -0.17534909 -0.16715582 0.103483595 -0.14091778 -0.025536329 0.1454209 0.06850094 -0.11851332 0.16451316 0.036023825 -0.21361142 -0.19611326 0.13218348 -0.23451194 -0.026826957 0.033815302 0.201542
33 -0.07260016 0.07217161 0.04036055 -0.13959628 0.07220405 0.30269065 -0.06378942 0.028587423 -0.03790046 0.11702003 0.043695506 -0.14209512 0.020470802 -0.14363763 -0.0035582266 -0.24434386 -0.13659738 -0.00021712141 0.12986203 0.06601318 -0.033846594 0.15965186 0.021180252 -0.07564061 -0.068715334 0.059084203 0.048251357 -0.1273078 -0.04046204 -0.05071869 -0.037004106 -0.10767948 0.08741569 0.028049516 0.1716497 0.05756392 -0.07894725 -0.04564071 -0.08285188 0.104416855 -0.057253487 0.08794512 0.08610541 -0.032334454 -0.052500065 0.026953187 0.1556048 -0.21496908 -0.03040513 -0.040753216 0.23323566 -0.024761667 -0.033845916 0.05967863 -0.17769498 -0.09901998 0.08807273 0.14686033 -0.08151289 -0.021998137 -0.12621665 0.10699229 -0.055866797 -0.0050729597 -0.21010783 -0.08265466 -0.06884429 -0.035835672 0.1526899 0.18139434 -0.03584457 0.00471355 0.12984677 0.099603236 0.112366125 -0.04559288 -0.120286226 -0.0052542835 -0.039266765 0.030657455 -0.17017098 -0.13192372 0.042203806 0.21669611 -0.16943263 0.02615619 -0.07445441 0.048795283 0.020647362 -0.01588946 0.0021751868 -0.10337433 -0.022359466 0.027305545 0.0018244765 0.06494894 0.010928 0.01868512 -0.12445765 -0.064733736 0.0045307674 0.09460526 0.14728653 0.08412097 0.14137153 0.06804197 0.18904012 -0.11121834 0.05845239 0.029952887 -0.058658376 -0.0476263 -0.12543729 0.1361034 -0.1700144 -0.17155287 0.07676697 0.024084868 -0.1582787 0.104468815 0.0944686 -0.18095462 -0.09108333 0.09069419 -0.1965456 -0.028972847 -0.12761338 0.10010393
3 -0.08035875 0.08006029 0.04801771 -0.1522347 0.0719819 0.31409827 -0.051425744 0.0046748314 -0.018084206 0.12038093 0.05797115 -0.15186048 -0.000902273 -0.15658896 0.0023635966 -0.22602445 -0.10846745 0.026846906 0.12989411 0.045188796 -0.044011332 0.17986618 0.034015927 -0.05484711 -0.0737852 0.050567042 0.022328408 -0.11256162 -0.012885176 -0.061605155 0.0027087987 -0.092035785 0.10812457 0.004840769 0.16625528 0.047820073 -0.08798498 -0.056356482 -0.075103186 0.08956349 -0.04683589 0.083026335 0.086303495 -0.037502244 -0.0671413 0.005753805 0.1352895 -0.21848279 -0.015281444 -0.03897474 0.23122199 -0.04207346 -0.04070932 0.05547555 -0.16241775 -0.10318397 0.095388174 0.15067828 -0.10671292 -0.04083606 -0.13115585 0.12059957 -0.022638224 0.01271569 -0.18845153 -0.09383139 -0.04858999 -0.051088743 0.13914317 0.19250955 -0.028492065 -0.008280534 0.11996454 0.10404887 0.13067809 -0.02711933 -0.09017447 -0.004318625 -0.009048153 0.08233371 -0.14337794 -0.11483794 0.033074107 0.18929707 -0.17487359 0.038062923 -0.038273137 0.026945462 0.012456885 -0.009684812 -0.024187472 -0.10336324 0.0043392195 0.0443318 0.031005371 0.097262725 0.008594863 0.026094187 -0.114743195 -0.06630853 -0.008240308 0.09094428 0.10433917 0.067758754 0.11379982 0.06344637 0.17622733 -0.1037938 0.063537836 0.013840185 -0.044393767 -0.07946961 -0.1365972 0.12421367 -0.16074084 -0.13313662 0.10111697 0.037907872 -0.14687288 0.11562477 0.07955299 -0.19564669 -0.11710088 0.10424929 -0.20777212 -0.027292462 -0.07259825 0.12856291
2 -0.07999191 0.06946591 0.04816428 -0.15157472 0.07209822 0.2930223 -0.031257715 -0.011896305 -0.017014053 0.10500743 0.059096713 -0.13994554 -0.011716442 -0.14035232 0.013275362 -0.19012722 -0.08946124 0.021861233 0.12600993 0.026016686 -0.04446624 0.17169055 0.03013513 -0.04550074 -0.06702604 0.048528 0.0049264827 -0.0947352 -0.0048405286 -0.06374819 0.012544761 -0.072120726 0.11397549 -0.0013486588 0.15668342 0.043312185 -0.08487125 -0.068782195 -0.06712688 0.07609051 -0.034853715 0.067528374 0.08240707 -0.03830265 -0.066107154 -0.0036060088 0.114785954 -0.21217066 -0.013576457 -0.031938285 0.22458385 -0.04908967 -0.046637934 0.050131653 -0.15675505 -0.10325054 0.100061886 0.14534946 -0.114619285 -0.04284435 -0.12625444 0.11916309 -0.0039471798 0.012648763 -0.176773 -0.11008112 -0.037182234 -0.061998975 0.12644154 0.18920349 -0.028952187 -0.0049424986 0.12033005 0.11537788 0.13605364 -0.027199127 -0.07275323 -0.0009722829 -0.00123827 0.10938138 -0.13669267 -0.111470945 0.028062243 0.18658116 -0.18472187 0.052989088 -0.029217286 0.0174283 0.0032846914 -0.01748525 -0.039444953 -0.10649655 0.01876348 0.050232332 0.04795897 0.11784082 0.0043052877 0.03493396 -0.1164534 -0.07525857 -0.02142472 0.09578402 0.08450791 0.06420408 0.09960375 0.07046329 0.18192168 -0.10253436 0.06604078 0.0053518126 -0.045454513 -0.09568882 -0.14814232 0.12768917 -0.16225152 -0.1101948 0.11259386 0.04893885 -0.14196463 0.1253832 0.067894004 -0.20394751 -0.14139524 0.11341401 -0.21880311 -0.027392954 -0.055717546 0.14725138
4 -0.07998746 0.07691636 0.051953763 -0.17103562 0.07244394 0.3060992 -0.004307852 -0.05886294 0.010181062 0.110355444 0.06261649 -0.14279595 -0.03668341 -0.15211199 0.023953596 -0.15064129 -0.03216872 0.05025554 0.11672717 -0.0038294222 -0.05656196 0.17775816 0.05883234 -0.0067703095 -0.0654591 0.045480136 -0.039084725 -0.060888857 0.03784505 -0.08228416 0.080488436 -0.04448103 0.12895072 -0.023876984 0.13600007 0.023570808 -0.09643538 -0.09454292 -0.041190922 0.057728715 -0.006985372 0.058527257 0.09474956 -0.05185306 -0.069742955 -0.03298864 0.07606447 -0.22700731 -0.0031611298 -0.022639032 0.21321292 -0.074563764 -0.0587354 0.041365754 -0.13028109 -0.09850521 0.125519 0.13367204 -0.14631447 -0.061624993 -0.12225516 0.13009454 0.049958993 0.038644537 -0.13802573 -0.12607181 -0.019404884 -0.099914424 0.09705895 0.21414886 -0.025863161 -0.020948088 0.10562319 0.12926663 0.16201273 -0.01009997 -0.01783991 -0.005270002 0.035434984 0.19014794 -0.12560195 -0.09902443 0.017146137 0.1545218 -0.20143522 0.078404695 0.012251045 -0.0044543785 -0.008284705 -0.015565853 -0.07774815 -0.115617774 0.057362717 0.08165834 0.085824035 0.16407931 -0.021750087 0.037350997 -0.106360026 -0.091937825 -0.047359187 0.0955606 0.02348177 0.044085745 0.047735352 0.07077065 0.17238413 -0.09117898 0.07654237 -0.02204638 -0.032624792 -0.1551835 -0.16702859 0.1147179 -0.14931343 -0.05260978 0.13813606 0.06380535 -0.12812676 0.1598563 0.051239267 -0.20919329 -0.18628666 0.12526688 -0.22789027 -0.030020053 0.005871627 0.18995665
32 -0.07850529 0.06896275 0.044896647 -0.12632369 0.07242115 0.30588162 -0.08776155 0.042930853 -0.0424503 0.12844661 0.03442763 -0.16124105 0.031756613 -0.14152527 -0.018885773 -0.2709555 -0.16486703 -0.014641571 0.13423274 0.07859109 -0.026871819 0.14762093 0.016903559 -0.0914186 -0.057097405 0.061132208 0.071486294 -0.14546283 -0.064311124 -0.05053349 -0.0651087 -0.13225588 0.061921872 0.034305435 0.17673123 0.066832855 -0.068973385 -0.024035553 -0.08346633 0.103254914 -0.059273146 0.09944569 0.08775088 -0.029532043 -0.0463565 0.03713241 0.16046204 -0.20084377 -0.044375297 -0.0433421 0.22869675 -0.016776236 -0.019015815 0.052458607 -0.1823922 -0.08977619 0.084346674 0.148998 -0.06653668 -0.006221321 -0.11861667 0.09608634 -0.085356206 -0.008431191 -0.21238169 -0.06622079 -0.07422414 -0.01646532 0.16055971 0.16376534 -0.028797101 0.006627366 0.12945886 0.09007567 0.109463565 -0.056886423 -0.15315428 -0.006276112 -0.046343487 -0.0064561907 -0.1823 -0.14457937 0.040005248 0.23213606 -0.1574476 0.008624903 -0.09264977 0.06939968 0.026737189 -0.010486466 0.029210534 -0.10551326 -0.051292434 0.012612932 -0.013166542 0.045342177 0.021846881 0.00720004 -0.11665912 -0.06136509 0.020595472 0.09319965 0.18167202 0.0940512 0.1449284 0.051487584 0.1835035 -0.112753786 0.040630247 0.049954325 -0.07481623 -0.013487413 -0.10847625 0.14099427 -0.1714701 -0.19096313 0.054926664 0.015699219 -0.15839355 0.08290959 0.105431974 -0.17104442 -0.066694245 0.07791247 -0.1894682 -0.02422484 -0.15671363 0.082239926
24 -0.07982613 0.072532505 0.052467838 -0.14088848 0.07837925 0.32474256 -0.07726343 0.034271784 -0.03337685 0.13790447 0.043053877 -0.16677648 0.02106536 -0.1442896 -0.013722254 -0.2663031 -0.15228073 -0.011153275 0.13813746 0.067120306 -0.030520605 0.15542497 0.01779927 -0.083333395 -0.06531979 0.06083522 0.059758686 -0.13669634 -0.056157414 -0.057309896 -0.049871534 -0.11770729 0.07222664 0.02766144 0.17418975 0.065038525 -0.07637859 -0.035550784 -0.07859972 0.10159227 -0.049929436 0.09848798 0.095162176 -0.034137763 -0.04844414 0.02851283 0.1584799 -0.21800278 -0.041239116 -0.040490855 0.23653038 -0.02499963 -0.02252385 0.057530828 -0.18992025 -0.095067374 0.092614435 0.15301861 -0.08369034 -0.013954591 -0.122050166 0.101518944 -0.06489778 -0.0041097407 -0.2214065 -0.082210414 -0.070689656 -0.03138816 0.16622142 0.18595243 -0.028141705 0.009991984 0.14004289 0.104536586 0.12412558 -0.055201024 -0.1347042 -0.0020914068 -0.037694354 0.024218962 -0.18701656 -0.14428547 0.041589703 0.22701705 -0.1681072 0.018986454 -0.085662045 0.060157906 0.022428835 -0.017472865 0.0134205185 -0.11639113 -0.038776107 0.022536809 -0.0030545956 0.06743528 0.017242627 0.0110909175 -0.120115034 -0.07301623 0.007897952 0.09572342 0.17011188 0.0948596 0.14281511 0.061793335 0.19204113 -0.11378626 0.04855818 0.04327272 -0.072787024 -0.035901047 -0.12719096 0.14244306 -0.17922688 -0.1867227 0.06771639 0.029961001 -0.16643347 0.09535472 0.10627697 -0.18412411 -0.0913321 0.09127667 -0.20973057 -0.034365833 -0.14650305 0.103574425
14 -0.07907578 0.07526315 0.049559627 -0.16804412 0.07150556 0.31217536 -0.010298437 -0.035132606 -0.00076917675 0.11029046 0.058137104 -0.13927531 -0.025030402 -0.14596185 0.021620074 -0.17449634 -0.056185264 0.040910374 0.117402166 0.013169454 -0.049241144 0.17459537 0.04966438 -0.025915539 -0.06426126 0.04999447 -0.022254238 -0.06909429 0.025673002 -0.0727115 0.05735756 -0.053324454 0.11837252 -0.010194345 0.14651552 0.0261794 -0.09083724 -0.0877119 -0.047995824 0.0706232 -0.019732941 0.06874971 0.092737496 -0.04502673 -0.06869055 -0.022063619 0.09490361 -0.22588384 -0.009167388 -0.028408209 0.2101805 -0.063807815 -0.056900702 0.046337273 -0.13512793 -0.099954836 0.11687141 0.1338671 -0.13532117 -0.050709657 -0.116635 0.121108636 0.027330501 0.027746856 -0.16041733 -0.123060815 -0.033531316 -0.08272975 0.10891187 0.2026509 -0.029666524 -0.0068803723 0.11797689 0.124478236 0.14786394 -0.0202012 -0.041067623 -0.0040668347 0.018539479 0.1590732 -0.13217002 -0.10452305 0.023175709 0.16460161 -0.18923402 0.06731487 -0.0020376807 0.008428162 0.003420415 -0.013439695 -0.058612797 -0.10846033 0.040131226 0.07101053 0.07212099 0.14233199 -0.014436834 0.04065754 -0.10758964 -0.08776424 -0.032351706 0.09604993 0.057141054 0.051564977 0.07176894 0.06813756 0.17652038 -0.09074916 0.0763956 -0.005907465 -0.034909617 -0.13039118 -0.16078342 0.1177536 -0.15676281 -0.08209482 0.12265831 0.04997585 -0.13360891 0.14451578 0.05624619 -0.20344463 -0.16489628 0.122288495 -0.22887726 -0.03214428 -0.01842846 0.16702811
9 -0.08035061 0.07518244 0.04936351 -0.15332736 0.07123961 0.30575812 -0.042787626 -0.005905131 -0.01602935 0.11361753 0.054771762 -0.14616969 -0.007247796 -0.14505248 0.0056416704 -0.2107713 -0.09573798 0.01827223 0.124411695 0.034912795 -0.03895478 0.16148232 0.031084307 -0.044007145 -0.06250862 0.05313676 0.0169287 -0.09943015 -0.013588067 -0.061163202 0.005823866 -0.08081391 0.10033661 0.003876972 0.15318821 0.042361088 -0.08378274 -0.05889687 -0.061254114 0.080425024 -0.03576457 0.07699764 0.08558083 -0.042161003 -0.055812363 0.0035164845 0.11485053 -0.2107917 -0.02134037 -0.032595776 0.21801206 -0.04103041 -0.043607596 0.046828292 -0.15555693 -0.093795784 0.09861204 0.1395454 -0.10423251 -0.03339922 -0.11325587 0.110744566 -0.013319162 0.012919862 -0.17764431 -0.101078816 -0.04404999 -0.0611046 0.12760429 0.19156149 -0.028317116 0.000336373 0.11891617 0.10894432 0.13081565 -0.03349869 -0.08291973 0.0018487718 -0.009583618 0.09121557 -0.15429693 -0.12168579 0.026892042 0.18352713 -0.17617536 0.043192953 -0.0356973 0.028355248 0.009660892 -0.015299647 -0.02908917 -0.108947 0.009510944 0.043550797 0.03348486 0.10330789 0.00135758 0.028417531 -0.11071408 -0.071736656 -0.014712314 0.09143101 0.1003136 0.06827079 0.09484513 0.0625977 0.17450668 -0.095455505 0.06187141 0.006885798 -0.0452052 -0.08659589 -0.14188698 0.12658311 -0.16068907 -0.12118566 0.099665016 0.043733895 -0.14020792 0.11940729 0.07875225 -0.19044499 -0.12702365 0.10186612 -0.20821922 -0.026175214 -0.07135349 0.13660431
7 -0.08988431 0.08328301 0.060715348 -0.20897017 0.0720811 0.34466758 0.03577459 -0.10781032 0.029090945 0.11344478 0.0732305 -0.14649734 -0.078609824 -0.16798835 0.041303936 -0.11333335 0.02775823 0.07139107 0.11891623 -0.036846153 -0.07276853 0.19120727 0.08319667 0.02726146 -0.05755812 0.044129062 -0.091296084 -0.018566392 0.09020902 -0.09750081 0.14900365 -0.013305813 0.15714484 -0.039206997 0.1271239 0.0027830428 -0.10223976 -0.13390563 -0.014319224 0.038683403 0.019838847 0.05454122 0.104331665 -0.06808171 -0.07803327 -0.06048026 0.034352507 -0.24836092 0.010000288 -0.011671452 0.21101554 -0.10271694 -0.082296684 0.031520095 -0.10811643 -0.09990616 0.1558511 0.12595758 -0.19118972 -0.082702585 -0.11415292 0.14110957 0.103164434 0.063976794 -0.12322209 -0.15767 -0.006668747 -0.14430484 0.06642701 0.24307722 -0.029587502 -0.023109667 0.10705152 0.16610326 0.18784039 0.0009809925 0.036700163 0.001358836 0.075327404 0.28859425 -0.1161003 -0.09289827 0.0050116405 0.12336949 -0.2293572 0.10753269 0.05507581 -0.036600217 -0.019461928 -0.021941232 -0.12929055 -0.13387951 0.11051655 0.10800808 0.13607518 0.23237613 -0.044230144 0.048584037 -0.10416556 -0.11596333 -0.076872736 0.09406579 -0.033173896 0.013278079 -0.003846035 0.07454284 0.16143389 -0.073267825 0.08796066 -0.049754363 -0.019476762 -0.21865052 -0.19568074 0.0970413 -0.140556 0.0122365765 0.16773452 0.08123549 -0.11607381 0.19336365 0.035069484 -0.2252813 -0.24020047 0.1565259 -0.262945 -0.03533339 0.075009644 0.24213837
6 -0.089933306 0.08756668 0.068201736 -0.20405301 0.07621329 0.33753008 0.04035914 -0.11967263 0.042772863 0.10558746 0.07403672 -0.1418068 -0.07952252 -0.15729767 0.04194018 -0.091886565 0.04693225 0.07190859 0.11009286 -0.051496573 -0.06649457 0.17665443 0.08523777 0.04427229 -0.054706246 0.03964679 -0.09864523 0.00012361928 0.09907782 -0.095149465 0.16402054 0.005499027 0.15093671 -0.045879453 0.10956803 -0.007422366 -0.09890959 -0.1355121 -0.00044975453 0.022628998 0.031618387 0.04469607 0.10266479 -0.06769052 -0.077852696 -0.06656031 0.018883353 -0.24221446 0.0052424865 -0.0116342865 0.19563733 -0.109519504 -0.08354995 0.031265717 -0.099779986 -0.09948778 0.15809742 0.1186696 -0.19710444 -0.0812395 -0.10267897 0.13695723 0.12270611 0.0704364 -0.10946284 -0.16462661 -0.0013934565 -0.1504606 0.05405608 0.2420407 -0.022753999 -0.025412157 0.09962226 0.16429138 0.18895414 0.008037091 0.0565873 -0.00065421115 0.082545795 0.30388802 -0.109300375 -0.08699984 0.004535457 0.10403237 -0.22306201 0.11459293 0.06621977 -0.043682743 -0.017514136 -0.023393612 -0.13915902 -0.13579297 0.123915166 0.116214246 0.14608386 0.24368821 -0.050546717 0.048519865 -0.094810285 -0.1148351 -0.08071133 0.096590094 -0.05413822 0.011462363 -0.018543063 0.06655588 0.15506543 -0.065510914 0.08346447 -0.061921593 -0.013133419 -0.22693801 -0.19139694 0.092389874 -0.12891522 0.030626383 0.17429005 0.09018153 -0.11583889 0.19752233 0.027032888 -0.22206128 -0.24879251 0.15494756 -0.26039365 -0.036436025 0.09384662 0.24354231
28 -0.08912992 0.076057605 0.057096053 -0.15198463 0.08401187 0.33509734 -0.075994454 0.02454402 -0.0277749 0.14428352 0.039134912 -0.1747672 0.014322035 -0.14701815 -0.008911129 -0.27002892 -0.14741008 -0.0049878564 0.1447831 0.06252152 -0.03767737 0.1623306 0.022859069 -0.07812738 -0.06006803 0.065427996 0.056929026 -0.13504566 -0.055748682 -0.05664001 -0.037217986 -0.12333195 0.07581044 0.032354094 0.1819376 0.061781142 -0.08204823 -0.03475815 -0.08138261 0.096772164 -0.051678766 0.10193223 0.09747199 -0.03747497 -0.049907953 0.027015962 0.15143992 -0.22720405 -0.044578448 -0.0367947 0.24237835 -0.026889933 -0.028092753 0.054206476 -0.19222322 -0.10315535 0.10735583 0.16110697 -0.09294018 -0.016037464 -0.117412575 0.10729747 -0.06358064 0.0028553153 -0.22317392 -0.088157244 -0.07059843 -0.031811614 0.15939179 0.19928369 -0.030822534 0.005524323 0.14494029 0.10837885 0.13116333 -0.047967616 -0.14059821 -0.003051306 -0.03194226 0.032545615 -0.19748712 -0.14883819 0.034157485 0.23812379 -0.18037568 0.02708298 -0.07967662 0.063448526 0.024344042 -0.013507234 0.007092749 -0.119507864 -0.03337905 0.03574036 0.0012785044 0.07366412 0.019060086 0.0143872015 -0.12242165 -0.07831588 0.00968155 0.09907626 0.17161205 0.09044146 0.13274635 0.05482206 0.18803409 -0.11038271 0.05444182 0.043445766 -0.07548151 -0.03837152 -0.13309304 0.14576387 -0.18143898 -0.1750326 0.07204202 0.030893462 -0.17130668 0.09977954 0.10399183 -0.18683536 -0.09871671 0.10033849 -0.21687016 -0.029994654 -0.13406962 0.11079373
30 -0.086073816 0.07849387 0.04774667 -0.1494296 0.07956979 0.3252762 -0.07812843 0.04134798 -0.04090835 0.1358229 0.03795733 -0.170787 0.027857555 -0.14497046 -0.015193075 -0.28535601 -0.15668236 -0.0049184607 0.14030735 0.0758477 -0.03294754 0.16102083 0.023839591 -0.08989133 -0.061924502 0.06166415 0.06473964 -0.14258792 -0.064066395 -0.05513422 -0.049746063 -0.12118057 0.071121156 0.03281526 0.17936471 0.06693212 -0.07423956 -0.033704665 -0.08550056 0.10614857 -0.0551787 0.107208915 0.099158384 -0.031615924 -0.04585633 0.033432648 0.16609164 -0.21596283 -0.041751865 -0.042043395 0.23824851 -0.02326773 -0.02803516 0.06147371 -0.19085702 -0.10449841 0.0974757 0.15546185 -0.07503126 -0.015755005 -0.121281706 0.100631386 -0.07192932 -0.004770824 -0.22985803 -0.08395749 -0.08055937 -0.022457516 0.1711975 0.18835339 -0.03661379 0.006066129 0.14659885 0.10386626 0.122391455 -0.056245025 -0.14784548 0.0009968329 -0.0485369 0.009070508 -0.19555397 -0.14727725 0.03796238 0.23829934 -0.17470352 0.018061386 -0.09415743 0.058406003 0.020779138 -0.012824682 0.014474032 -0.121212594 -0.037469808 0.019724574 -0.0109803835 0.055999532 0.016361812 0.014205407 -0.12567793 -0.06760138 0.0055048685 0.101392634 0.17461102 0.09261309 0.14809161 0.059086695 0.18522155 -0.118879445 0.052916277 0.041286673 -0.07256368 -0.031280152 -0.1191127 0.13926294 -0.17372268 -0.19080457 0.061976667 0.023648204 -0.1710487 0.09290171 0.1094534 -0.1775326 -0.08613345 0.094793916 -0.20511805 -0.03638593 -0.15311883 0.09317546
8 -0.085384734 0.07709497 0.05405679 -0.16405834 0.072629504 0.31075576 -0.02456494 -0.029648922 -0.0035715143 0.11239491 0.060158726 -0.14149785 -0.01866478 -0.15139371 0.014284534 -0.18026839 -0.066353105 0.034617953 0.12034032 0.016612725 -0.046780065 0.17136165 0.044799868 -0.02852186 -0.06401555 0.051464517 -0.012490588 -0.08450856 0.010946944 -0.072447844 0.040708262 -0.06872786 0.11666272 -0.005747218 0.1522108 0.037380718 -0.08864665 -0.077651925 -0.05569449 0.0714526 -0.026521467 0.07260467 0.094696306 -0.048520062 -0.065923356 -0.014975981 0.101079896 -0.22382507 -0.015495025 -0.029419389 0.2194187 -0.058336705 -0.055020098 0.044263497 -0.14798108 -0.095325254 0.114096545 0.13814852 -0.12349363 -0.04239507 -0.12196226 0.11516693 0.016016614 0.020724587 -0.16701089 -0.11780455 -0.03603122 -0.07784711 0.113103144 0.20689091 -0.028324155 -0.012425285 0.122240275 0.120416895 0.14920282 -0.020893464 -0.050680704 -0.0017161742 0.01134691 0.13958837 -0.14230834 -0.11547026 0.02086833 0.17437598 -0.19297811 0.062499944 -0.013345597 0.011758454 0.0065898728 -0.0135387555 -0.04954885 -0.11355191 0.033039033 0.0671063 0.05714311 0.13739575 -0.011995896 0.035300672 -0.113163814 -0.083279565 -0.025952494 0.09241432 0.06421548 0.055827715 0.07779001 0.06856855 0.17651406 -0.09707766 0.07104671 -0.0042078197 -0.037602402 -0.117051184 -0.15375844 0.12244458 -0.15733737 -0.09480988 0.11825163 0.052689582 -0.13973352 0.14125353 0.06777746 -0.20525627 -0.15433574 0.11565462 -0.2223573 -0.027879989 -0.03593309 0.1622222
5 -0.08399614 0.07958689 0.06298036 -0.18917005 0.06971443 0.33136016 0.014153132 -0.0837243 0.02593319 0.113323025 0.074063785 -0.14291428 -0.05878291 -0.15930969 0.034109555 -0.13052426 0.008881311 0.062420998 0.11330712 -0.022919374 -0.057326127 0.17649199 0.07405753 0.015882745 -0.056050494 0.04312213 -0.06859583 -0.03578834 0.06532537 -0.0850769 0.119797856 -0.020786969 0.14200164 -0.030591885 0.12733237 0.011216208 -0.09313442 -0.11540901 -0.025270274 0.04131856 0.011213425 0.058877226 0.10560857 -0.0663375 -0.07345379 -0.050497007 0.05189066 -0.24097556 -0.0030485685 -0.01564288 0.21631558 -0.093880914 -0.07196167 0.035745967 -0.118869565 -0.104437664 0.14657667 0.13506393 -0.17219914 -0.07022194 -0.115107365 0.13040052 0.08255274 0.057666067 -0.13234226 -0.14680883 -0.012242783 -0.12508993 0.07774374 0.23118411 -0.027971257 -0.017266301 0.10762143 0.15185283 0.18003102 -0.004846386 0.016318884 -0.0009449564 0.059411496 0.24885984 -0.12929419 -0.09582827 0.01276471 0.13797514 -0.21835777 0.09737283 0.034767017 -0.02280922 -0.01454399 -0.020840112 -0.10959581 -0.13256289 0.08535848 0.10104097 0.11462337 0.2036685 -0.03536535 0.04123717 -0.103772014 -0.10837606 -0.06444686 0.09912992 -0.01041125 0.026652832 0.019098697 0.0674237 0.17186116 -0.079015166 0.07804544 -0.041248515 -0.02439487 -0.19176301 -0.18171616 0.10193496 -0.1421026 -0.014934837 0.15943384 0.078476146 -0.12612581 0.18237759 0.04491909 -0.22159496 -0.21617678 0.14281699 -0.25616089 -0.02855503 0.03997695 0.22109164
26 -0.08663583 0.06667772 0.05523217 -0.13106066 0.07545073 0.30183 -0.07692945 0.030400768 -0.030216506 0.13905853 0.02922948 -0.1661273 0.027739499 -0.1315752 -0.015502174 -0.25955245 -0.14480194 -0.018148253 0.12623589 0.06243551 -0.02414177 0.14187653 0.021490661 -0.07781036 -0.059821352 0.05992384 0.0656388 -0.13011028 -0.06674177 -0.051762104 -0.05667771 -0.121770926 0.061820485 0.028033573 0.16305633 0.061219107 -0.07332798 -0.024536941 -0.07317752 0.08855738 -0.04914623 0.10441748 0.09484293 -0.03715263 -0.043621834 0.029573133 0.14510366 -0.20409475 -0.046318386 -0.035494454 0.21797478 -0.024754956 -0.012592943 0.053982466 -0.18330802 -0.08322874 0.09429052 0.14909126 -0.06632115 -0.009714737 -0.11019515 0.09304456 -0.07563834 0.0006120476 -0.2046787 -0.07794133 -0.078285344 -0.021331495 0.16040933 0.17796963 -0.031773478 0.0007357026 0.1260799 0.09211594 0.12061658 -0.055298064 -0.14065754 -0.003438786 -0.04197698 0.009383404 -0.18846881 -0.14899424 0.034120843 0.23277669 -0.16153172 0.023658426 -0.08018649 0.06586765 0.02470801 -0.0152923465 0.012071669 -0.118867934 -0.044949133 0.028665772 -0.0039159344 0.06095503 0.01963173 0.0057958695 -0.12084119 -0.073139474 0.013881113 0.09712767 0.17860445 0.09030485 0.13274212 0.048303936 0.1857501 -0.11536855 0.04041787 0.046040133 -0.08000047 -0.026646119 -0.119898826 0.13635603 -0.17623664 -0.1809873 0.0657697 0.02646519 -0.16055886 0.084150024 0.10251434 -0.17989446 -0.09094717 0.08729945 -0.20524079 -0.02963977 -0.14819925 0.0956959
25 -0.08844287 0.07007249 0.055247214 -0.13108698 0.08019343 0.3198536 -0.09696713 0.050214265 -0.033901855 0.14887014 0.031306073 -0.17286718 0.03321328 -0.1380055 -0.02195389 -0.2860189 -0.1747399 -0.022809941 0.13526022 0.0795949 -0.024807278 0.14599863 0.013903027 -0.093291886 -0.06390793 0.06258357 0.084069215 -0.15094039 -0.08187832 -0.052850373 -0.07519417 -0.14111036 0.05934949 0.04114638 0.17944881 0.06962896 -0.070649706 -0.012887092 -0.08331912 0.1010215 -0.05734727 0.110973366 0.09591485 -0.031587522 -0.041647043 0.04325841 0.16584212 -0.20903806 -0.047847416 -0.041923873 0.23451896 -0.0127787385 -0.007236317 0.05475009 -0.19778436 -0.088173315 0.09183906 0.15583132 -0.06505994 -0.0057983957 -0.116348565 0.09233738 -0.09841553 -0.009477078 -0.22111398 -0.065025456 -0.08470669 -0.006374778 0.17294429 0.1743777 -0.031384494 0.007275587 0.13923189 0.09269143 0.11850679 -0.055938855 -0.16656898 -0.00011888013 -0.050598282 -0.018804373 -0.19863129 -0.15642434 0.041744683 0.25083163 -0.16593617 0.013504567 -0.0955899 0.076653875 0.025064496 -0.016437454 0.03072021 -0.12132319 -0.06343346 0.01400148 -0.013661168 0.042344395 0.023281343 0.00895663 -0.12799974 -0.065744236 0.022307158 0.1009718 0.20290193 0.10413434 0.15535848 0.052288614 0.1910886 -0.119119115 0.035592146 0.053059354 -0.084101334 -0.004011495 -0.11549352 0.14451975 -0.18406348 -0.20606479 0.05417581 0.020590002 -0.17071654 0.077522635 0.11107999 -0.17792809 -0.07370646 0.08012236 -0.20561847 -0.03383015 -0.17281225 0.08268031
11 -0.07998712 0.080800265 0.058120638 -0.18055536 0.072110325 0.32593092 0.0018788863 -0.06485386 0.014525218 0.11608542 0.06458748 -0.14398174 -0.045955148 -0.15661027 0.021185288 -0.15070274 -0.022057675 0.052374933 0.115202166 -0.006762154 -0.05691278 0.17397158 0.06435842 -0.0042256922 -0.06257876 0.048241746 -0.04174725 -0.056834273 0.042531624 -0.07602291 0.08686959 -0.037201747 0.12635082 -0.018883456 0.13406791 0.016956883 -0.088965125 -0.1010225 -0.035203762 0.058241546 -0.0040959497 0.061054856 0.09779158 -0.05223312 -0.07362405 -0.03394227 0.06811016 -0.23499303 -0.0005004312 -0.016471982 0.21129856 -0.07277896 -0.06602514 0.03993644 -0.12341336 -0.09732731 0.13316754 0.1323113 -0.15154612 -0.060869582 -0.112340994 0.12348841 0.051621065 0.043225292 -0.14890426 -0.13328981 -0.022782832 -0.106154725 0.097347975 0.22235641 -0.023887957 -0.017517095 0.10696758 0.14131276 0.16585465 -0.015529379 -0.014559353 -0.0032844385 0.034602273 0.20536992 -0.13453133 -0.105482064 0.011731573 0.15043549 -0.2043052 0.082922205 0.015459849 -0.007119184 -0.0014694525 -0.016858432 -0.08375464 -0.12044908 0.06660537 0.081920564 0.08664256 0.1756673 -0.026545918 0.038058437 -0.10995383 -0.09278118 -0.047163974 0.09771512 0.022603882 0.03759556 0.04339779 0.06558984 0.16799481 -0.08800485 0.07594727 -0.02582127 -0.026627004 -0.15933062 -0.17203641 0.112149544 -0.14800121 -0.053499456 0.13825928 0.05981679 -0.13298064 0.1636546 0.052303478 -0.20992331 -0.19069467 0.12861471 -0.23821928 -0.032356784 0.011651564 0.19530714
20 -0.07897725 0.0673512 0.048831534 -0.15615216 0.07064178 0.29862586 -0.029246764 -0.012598795 -0.01081162 0.111750916 0.05448935 -0.14321117 -0.010133228 -0.14559479 0.010142015 -0.18902811 -0.08441141 0.022462634 0.12172532 0.028069139 -0.042617615 0.16752838 0.03338561 -0.039085414 -0.06654807 0.046657376 0.005930527 -0.08957185 0.003528496 -0.06313953 0.023869587 -0.075429946 0.11044122 1.6691803e-05 0.15081851 0.041501384 -0.07994304 -0.07140062 -0.05744061 0.0756791 -0.03144149 0.07408241 0.085441746 -0.040637497 -0.05757895 -0.0077467985 0.108511 -0.2154738 -0.012880321 -0.030177522 0.21857443 -0.04537964 -0.043838765 0.049612343 -0.14668608 -0.0956262 0.10440639 0.1395858 -0.108535945 -0.04205429 -0.119905256 0.11394256 -0.0022404552 0.014536653 -0.17568333 -0.10773521 -0.043552212 -0.068746276 0.12310675 0.19395232 -0.026342133 -0.010239893 0.12037716 0.11788072 0.13707463 -0.029593287 -0.06534924 -0.005466197 -0.00404795 0.1109005 -0.14582612 -0.11327009 0.025373235 0.1812733 -0.18446548 0.05427104 -0.022417208 0.020198932 0.005717368 -0.016275443 -0.041810367 -0.11096575 0.021599337 0.056187198 0.04995034 0.11450744 -0.0054063187 0.03266253 -0.11183652 -0.07823061 -0.018305097 0.09631371 0.08211311 0.06402235 0.08993354 0.06770849 0.17823304 -0.098063506 0.06334945 0.0014006216 -0.043252688 -0.10155204 -0.14461811 0.12546104 -0.1571396 -0.11005346 0.10647939 0.0410742 -0.13976446 0.124056526 0.066236615 -0.20046772 -0.13890417 0.11221421 -0.21552886 -0.025938477 -0.05377947 0.14492173
31 -0.0759528 0.068634585 0.045564387 -0.13606104 0.06767642 0.2999637 -0.06114176 0.024844972 -0.034564793 0.119202554 0.043846782 -0.14848417 0.010348201 -0.1425914 -0.0052439105 -0.2426035 -0.13213779 0.006161027 0.133319 0.05560052 -0.039111894 0.16108166 0.024427405 -0.07009881 -0.05880436 0.05359164 0.04417479 -0.12470252 -0.035404466 -0.051104993 -0.026909288 -0.10519064 0.07979567 0.024492614 0.16609998 0.053006615 -0.07688712 -0.038831245 -0.07459865 0.099180244 -0.05169702 0.08677011 0.087341696 -0.033777803 -0.055152792 0.022598688 0.14514254 -0.20580646 -0.024198866 -0.036194377 0.22050263 -0.026241992 -0.0336216 0.050811663 -0.16741207 -0.094033375 0.087536976 0.14214724 -0.084001236 -0.025558557 -0.115662076 0.09896343 -0.04914556 0.0013630243 -0.20046479 -0.07903061 -0.061122414 -0.036989376 0.1454721 0.17118134 -0.027132908 0.0049328855 0.12960371 0.09628505 0.1094605 -0.043615717 -0.11740311 -0.0048320633 -0.02792242 0.036398306 -0.15879329 -0.1239029 0.034256488 0.20188431 -0.1584164 0.023695132 -0.06601904 0.044093043 0.018772932 -0.017459165 0.0035592765 -0.099990055 -0.02302691 0.03218609 0.009123107 0.0684423 0.01388748 0.018287266 -0.10973969 -0.06867983 0.00403464 0.088667385 0.13935138 0.078805104 0.1257497 0.06068955 0.17708655 -0.10138645 0.057494152 0.03149547 -0.054575488 -0.045483112 -0.11926233 0.13298996 -0.15690574 -0.16180974 0.07121196 0.024198746 -0.14870033 0.0993645 0.087107375 -0.17234293 -0.089662105 0.08777573 -0.19253217 -0.024529545 -0.10968704 0.09750477
29 -0.079269774 0.07469226 0.039451905 -0.13693966 0.07220266 0.3034573 -0.07627586 0.027840486 -0.03567139 0.12818652 0.047957074 -0.1511487 0.014865493 -0.14722273 -0.0077830516 -0.256708 -0.14653444 0.0031536054 0.13360998 0.065522134 -0.03734106 0.160929 0.022694848 -0.0834535 -0.06121079 0.055394772 0.05269839 -0.13395488 -0.05101488 -0.04793321 -0.04603557 -0.11852874 0.085891254 0.029200178 0.17619474 0.062703095 -0.08005116 -0.03807644 -0.08684922 0.10533423 -0.05869757 0.09513386 0.090783775 -0.03638172 -0.04812536 0.025044024 0.15823829 -0.20882753 -0.028878689 -0.03542612 0.23299046 -0.02212 -0.025818985 0.053499766 -0.17893875 -0.09717768 0.08904174 0.1529591 -0.07339549 -0.021102237 -0.12960994 0.10865321 -0.06895878 0.0017286786 -0.21070072 -0.07878175 -0.06877454 -0.025527345 0.15762852 0.17878558 -0.030161036 0.0008514131 0.12368825 0.09784685 0.118351415 -0.04671043 -0.13125147 -0.0046870746 -0.03729628 0.025702018 -0.17349154 -0.13663115 0.038353782 0.21855351 -0.16532505 0.02077152 -0.07561089 0.055152018 0.019998679 -0.013694569 0.0111301355 -0.1062761 -0.03836643 0.02586255 -0.0052157794 0.057409868 0.01830837 0.017182259 -0.12115966 -0.064897686 0.0107467 0.08953672 0.15410095 0.08348327 0.14289017 0.064520024 0.18824515 -0.11576395 0.053146247 0.037251774 -0.06666288 -0.038501706 -0.124200344 0.13557848 -0.16940044 -0.17719792 0.06871562 0.020640047 -0.15134607 0.09812914 0.096369185 -0.17822413 -0.085486725 0.09208487 -0.1995618 -0.027551878 -0.13515595 0.09536637
10 -0.07758657 0.07166203 0.043766685 -0.13673875 0.068192236 0.291872 -0.05582984 0.012924493 -0.029929772 0.11366445 0.045880068 -0.14298551 0.0041226726 -0.13815771 -0.0026275541 -0.22313182 -0.11524965 0.008517309 0.122807704 0.052398395 -0.03579236 0.15753311 0.023194691 -0.06685925 -0.058030542 0.056163445 0.03248994 -0.11019618 -0.025223332 -0.052404556 -0.020683974 -0.091672875 0.09147413 0.014654021 0.15979083 0.05456222 -0.07570118 -0.05212966 -0.072965026 0.09150908 -0.044576652 0.08419193 0.086030185 -0.037521247 -0.05583478 0.011412778 0.13391045 -0.20558283 -0.022304336 -0.037525944 0.2182035 -0.03040334 -0.037959345 0.053687792 -0.16089422 -0.09474932 0.08743549 0.13902794 -0.08868584 -0.026595496 -0.11543466 0.10257481 -0.03815283 0.004719503 -0.19222173 -0.08323657 -0.05082193 -0.04603866 0.13903058 0.17715521 -0.028979322 0.0021532425 0.11769252 0.09528976 0.116149165 -0.037813656 -0.10322985 -0.006066042 -0.023685409 0.05542737 -0.15622605 -0.120981075 0.030100701 0.19428135 -0.16239534 0.026788836 -0.056045163 0.036396883 0.012713135 -0.013827598 -0.010030509 -0.0959175 -0.0127196675 0.03322576 0.018095385 0.072489634 0.011964129 0.019097261 -0.10731063 -0.06617498 -0.0042458326 0.09085905 0.123399474 0.07291091 0.11983678 0.058940522 0.1744762 -0.09940679 0.05448642 0.022515137 -0.04781549 -0.059584387 -0.12293976 0.12441522 -0.15904188 -0.14398555 0.08065614 0.030175772 -0.14435998 0.10277158 0.08361562 -0.1721712 -0.097077616 0.094343506 -0.19395226 -0.027293276 -0.099903844 0.11114977
13 -0.08001053 0.06945028 0.048174754 -0.15177768 0.065241925 0.30446833 -0.029934922 -0.02741393 -0.0024892357 0.117194824 0.059018254 -0.14120483 -0.023097144 -0.14521627 0.008941947 -0.18210769 -0.068563476 0.033344332 0.119808786 0.019776914 -0.047635447 0.17060828 0.04302682 -0.03235332 -0.063217185 0.04907171 -0.002383013 -0.081469245 0.012872357 -0.067263715 0.029907519 -0.06898096 0.109825104 -0.00079844333 0.15264614 0.03617418 -0.08658281 -0.078531705 -0.05448248 0.070822135 -0.028881654 0.07266384 0.0883945 -0.050542932 -0.05802837 -0.013304329 0.096510515 -0.21578702 -0.017738534 -0.027648166 0.2191447 -0.057915214 -0.050197545 0.048892867 -0.1454545 -0.09903885 0.11410832 0.13612191 -0.11924185 -0.038478076 -0.12202473 0.12004947 0.0036114655 0.02754925 -0.16388862 -0.10687728 -0.039963935 -0.07128003 0.11616018 0.19651139 -0.03219311 -0.008211479 0.11219103 0.117558695 0.1432478 -0.02390647 -0.05507656 -0.0027715785 0.013820719 0.13237157 -0.14226305 -0.1124569 0.01939126 0.17721568 -0.18668018 0.0540221 -0.015631232 0.014941908 0.0032991418 -0.014413511 -0.0435912 -0.10823328 0.022133823 0.0580682 0.054673053 0.12555623 -0.005131638 0.026572164 -0.11514704 -0.078422524 -0.025114171 0.09554619 0.0746678 0.05786215 0.07864373 0.06810556 0.17807844 -0.09658515 0.0627005 -0.0017025454 -0.047883466 -0.11522187 -0.15046501 0.12092216 -0.15964226 -0.093500145 0.11180483 0.048459638 -0.13643123 0.13575312 0.06480252 -0.20315087 -0.15123987 0.11330117 -0.22365907 -0.028892567 -0.045070346 0.15939595
17 -0.093045354 0.08647319 0.06922857 -0.21103631 0.0722431 0.33727333 0.0445342 -0.11609449 0.035883628 0.103345394 0.07842353 -0.14247715 -0.08015443 -0.16625257 0.04356157 -0.09638586 0.047347046 0.07343068 0.11319405 -0.05045526 -0.06593768 0.18937732 0.0844851 0.04372216 -0.05572996 0.038139287 -0.09511303 -0.008588088 0.09873797 -0.103532135 0.16472602 0.0017039478 0.15815629 -0.051536627 0.11636076 0.00067591725 -0.107027784 -0.14007096 -0.005106623 0.030435327 0.023386769 0.050451458 0.10596416 -0.072521195 -0.08312841 -0.067977905 0.02444287 -0.248019 0.008521504 -0.014929207 0.20904455 -0.108538784 -0.085658945 0.03371083 -0.10636902 -0.10112176 0.15931885 0.12420074 -0.19818316 -0.082609326 -0.10983594 0.14013861 0.123118065 0.0687555 -0.11612076 -0.17190267 -0.0018881834 -0.15273774 0.056061056 0.2502982 -0.025307069 -0.02354801 0.10774532 0.17140354 0.19296649 0.00047916584 0.055054672 0.00078020175 0.08200625 0.31070185 -0.11405813 -0.09228564 0.0006301543 0.116424404 -0.2295795 0.12074484 0.07043819 -0.049301382 -0.017986557 -0.02078882 -0.13950174 -0.13857199 0.1275329 0.117138766 0.14482217 0.24835911 -0.051085632 0.049884565 -0.09887211 -0.11937183 -0.082138516 0.10174271 -0.04875698 0.017959973 -0.010765332 0.070037924 0.16813278 -0.07417904 0.092829764 -0.058168143 -0.009358775 -0.23486061 -0.19386674 0.099202596 -0.13669348 0.02417904 0.18305875 0.08492563 -0.11961878 0.20469327 0.02757413 -0.2286159 -0.25490922 0.15565597 -0.2696675 -0.0343424 0.09634994 0.2493258
22 -0.08741582 0.07609023 0.05490313 -0.18083161 0.07642908 0.32978567 -0.0077180015 -0.046324838 0.0011198831 0.11047347 0.060619127 -0.14892544 -0.033103265 -0.15627447 0.025157547 -0.17162019 -0.043967728 0.041687574 0.12840572 0.0036487035 -0.055664133 0.18563019 0.052374613 -0.020187208 -0.067235835 0.04511835 -0.031691134 -0.06721838 0.03353426 -0.081888966 0.06682423 -0.05441923 0.12826315 -0.012024719 0.14813425 0.023779662 -0.09471825 -0.09245251 -0.04397126 0.06037226 -0.017422168 0.06897929 0.09720785 -0.05565915 -0.07375133 -0.022942554 0.09054351 -0.2349972 -0.00819355 -0.021999879 0.21983635 -0.06865272 -0.059484348 0.038648643 -0.14214416 -0.10520568 0.124535866 0.14122018 -0.14822724 -0.056110367 -0.11718691 0.1280595 0.04332962 0.03366899 -0.15844716 -0.13473102 -0.032294173 -0.094964 0.102552235 0.21236089 -0.030681219 -0.015775347 0.11759723 0.13321134 0.16012786 -0.019242706 -0.02773577 0.0018298824 0.027258825 0.18451427 -0.13111304 -0.106253706 0.016293295 0.16073288 -0.20397681 0.0767174 0.005359016 -0.0034238598 -0.005501339 -0.016984632 -0.068172835 -0.12011646 0.05520896 0.08059503 0.08236909 0.16396038 -0.020670267 0.04207436 -0.10806841 -0.09538026 -0.044368744 0.09334842 0.041303713 0.04465688 0.06332018 0.07327581 0.17871924 -0.08968563 0.080725044 -0.019309105 -0.02981019 -0.14804818 -0.16859594 0.12178878 -0.16016124 -0.07378608 0.13816345 0.05626076 -0.13697079 0.15560228 0.05275446 -0.21641825 -0.18222483 0.12984774 -0.23901962 -0.031066157 -0.004145884 0.1824089
19 -0.07834514 0.07987593 0.04724419 -0.15685317 0.0713193 0.3205537 -0.04747366 0.0032096321 -0.021837624 0.11860883 0.053707488 -0.14757296 -0.0010886476 -0.14693888 0.0011128929 -0.22807465 -0.10736286 0.012636352 0.12849239 0.041282315 -0.041244067 0.16867371 0.031193106 -0.053600978 -0.0594058 0.056727786 0.014225667 -0.10344443 -0.011603045 -0.05852337 0.002901847 -0.087011315 0.094158515 0.010398641 0.15523595 0.05030741 -0.077210955 -0.057549015 -0.06802156 0.086491846 -0.04108257 0.08083814 0.087592974 -0.04121374 -0.058633152 0.007651229 0.12614912 -0.21895972 -0.024835264 -0.032692403 0.22131242 -0.037742812 -0.04241158 0.048662152 -0.16468395 -0.1031542 0.10650184 0.14389992 -0.104794614 -0.033391017 -0.119690925 0.114592426 -0.016369872 0.0075030196 -0.19428459 -0.10122972 -0.053113174 -0.055857178 0.13301133 0.1940798 -0.0312579 0.0019175191 0.12878896 0.11192058 0.12830544 -0.03816676 -0.08939539 -0.0029713556 -0.013125248 0.08184719 -0.16096275 -0.11980557 0.03353428 0.18812664 -0.17790878 0.04166841 -0.049335323 0.033135362 0.0094662625 -0.019845359 -0.020100027 -0.1109664 0.0044971425 0.044094663 0.027309887 0.10233253 0.00088822073 0.025194718 -0.11327191 -0.07412161 -0.01623339 0.09060993 0.10872829 0.06593623 0.10782504 0.06614681 0.17661256 -0.09703834 0.06453058 0.012739402 -0.049378935 -0.07721081 -0.13540396 0.127129 -0.15884142 -0.13236217 0.09440181 0.03450678 -0.14602281 0.118652195 0.078859285 -0.18283752 -0.117847756 0.10292107 -0.20109765 -0.030870713 -0.08136827 0.1290535
27 -0.0790394 0.081226446 0.05061683 -0.14279069 0.0719512 0.3204531 -0.06611693 0.026439346 -0.02974175 0.13058722 0.04734328 -0.16056456 0.01751544 -0.14924566 -0.008033266 -0.25746486 -0.14020725 -0.0028247263 0.13768445 0.0627782 -0.033479404 0.15730779 0.022361932 -0.07366629 -0.062988244 0.061732873 0.04558676 -0.13040605 -0.04070094 -0.05199803 -0.032600574 -0.109224156 0.082841575 0.02682869 0.17522593 0.058668923 -0.07746205 -0.039541744 -0.079013474 0.10221724 -0.051816817 0.09352851 0.09582593 -0.040723972 -0.05010935 0.024535924 0.14658117 -0.22263522 -0.0335093 -0.035804708 0.23218362 -0.027250016 -0.028885229 0.0601885 -0.18277341 -0.10336659 0.09931876 0.15433615 -0.091681294 -0.01977805 -0.116051346 0.10168739 -0.05502378 0.0013877458 -0.22025849 -0.08592991 -0.06472885 -0.04046428 0.151107 0.19064406 -0.033643924 0.004634604 0.14190207 0.10789414 0.120410345 -0.04878593 -0.12799934 -0.005964468 -0.033133484 0.043967612 -0.18476807 -0.14081128 0.03735282 0.21814804 -0.17557646 0.027535636 -0.07730239 0.054398444 0.020854289 -0.015836352 -0.0021818194 -0.117572285 -0.026995393 0.028363269 0.0019711182 0.074145526 0.013110903 0.01648702 -0.12237535 -0.07546789 0.0052387314 0.0982222 0.1542305 0.087144166 0.1364396 0.060991965 0.19061562 -0.112798624 0.055289056 0.03457765 -0.05861033 -0.053073596 -0.12991576 0.14189923 -0.1693941 -0.16605367 0.07372819 0.028090864 -0.16451485 0.10469737 0.10244193 -0.18242158 -0.10089369 0.101791866 -0.21212226 -0.036565967 -0.12801011 0.107890315
15 -0.083511055 0.080770016 0.048866425 -0.1545892 0.07491221 0.31884968 -0.057614904 0.0063004657 -0.024787948 0.12362327 0.05310555 -0.15275018 0.004548565 -0.15089826 0.003226457 -0.23676066 -0.11815454 0.012377015 0.13480975 0.049468752 -0.037580885 0.16720776 0.031029472 -0.06483412 -0.065546446 0.059597656 0.026353244 -0.11214272 -0.022057243 -0.06225778 -0.010586461 -0.09333743 0.09892915 0.014856096 0.16452603 0.052535966 -0.08076491 -0.05176509 -0.07029354 0.0891572 -0.04182092 0.08330848 0.09293834 -0.040310036 -0.061508276 0.00828836 0.13801284 -0.21939687 -0.023275845 -0.034804113 0.23193848 -0.03757462 -0.038164843 0.055158086 -0.16877212 -0.10156457 0.105208024 0.15089592 -0.10006878 -0.029926758 -0.12225002 0.11067461 -0.033090096 0.00835841 -0.20090948 -0.09581217 -0.054727506 -0.052620195 0.13992152 0.19036955 -0.029736113 -0.0019992173 0.12890248 0.10798047 0.1279498 -0.035523105 -0.098440245 -0.0047228485 -0.01761611 0.06976182 -0.16788237 -0.1285173 0.034953825 0.20760024 -0.17785598 0.03585221 -0.055355746 0.035331056 0.015189282 -0.013481692 -0.015590128 -0.11242901 -0.002958796 0.039236996 0.023180902 0.09092701 0.0037048769 0.020394525 -0.11437519 -0.074320056 -0.01262573 0.09204364 0.12046114 0.0778592 0.12140333 0.06919318 0.18512364 -0.10334428 0.06289901 0.018742837 -0.053084243 -0.06842672 -0.13803452 0.13310042 -0.1699663 -0.1485632 0.092154324 0.038744178 -0.15587933 0.11404879 0.08661298 -0.19115302 -0.11314975 0.10040532 -0.2101832 -0.030853812 -0.09832638 0.12583981
16 -0.08040693 0.07665274 0.049194004 -0.14261562 0.07405375 0.30913788 -0.0559262 0.015274432 -0.024323748 0.12262681 0.045544244 -0.15260282 0.0057793204 -0.13998666 -0.004437659 -0.23476318 -0.118021466 0.008044208 0.12795465 0.05336816 -0.038341023 0.1536802 0.028587056 -0.06059963 -0.06163552 0.05576229 0.03737421 -0.11640785 -0.030228939 -0.053216513 -0.017280547 -0.10053026 0.084219046 0.019192673 0.15975803 0.054263476 -0.07681628 -0.048789605 -0.07051902 0.09284905 -0.04306095 0.09013362 0.08984608 -0.04146269 -0.051489588 0.012247852 0.1369519 -0.2164455 -0.029380545 -0.03597275 0.22519623 -0.032341614 -0.03684738 0.052643888 -0.17207688 -0.09538528 0.09767512 0.14333132 -0.092340894 -0.023623588 -0.11779155 0.10718382 -0.036696155 0.00511811 -0.19944943 -0.09229516 -0.056434337 -0.048198227 0.14189832 0.18439114 -0.032937486 0.0028278704 0.12492743 0.10517104 0.12513553 -0.042777672 -0.107084036 -0.001124793 -0.023631606 0.05671054 -0.16909337 -0.12503795 0.03498964 0.20106915 -0.16729075 0.03196048 -0.06015892 0.038615018 0.014828045 -0.01644163 -0.010142375 -0.10922722 -0.014166322 0.038131524 0.017648065 0.08238584 0.006397981 0.017537905 -0.11144116 -0.06824837 -0.005199259 0.0900598 0.12857196 0.07337115 0.113746114 0.06415823 0.17722505 -0.10115953 0.05532789 0.019693207 -0.052893627 -0.056929026 -0.12896138 0.12666203 -0.15942061 -0.14621404 0.08004347 0.034443982 -0.14627981 0.1069541 0.08944899 -0.1795486 -0.10379346 0.09857788 -0.19862114 -0.02877491 -0.10764768 0.11267438
21 -0.08356985 0.070770666 0.04991516 -0.14475138 0.071811825 0.314567 -0.057950735 0.014769452 -0.03020744 0.1253302 0.043317605 -0.1531351 0.00828181 -0.14837761 -0.0027867379 -0.24087131 -0.12823734 0.008137765 0.13078706 0.053403612 -0.040330462 0.15871006 0.029336326 -0.069004364 -0.06078992 0.06117636 0.036769714 -0.12207859 -0.033615824 -0.054232568 -0.02105136 -0.10365397 0.085119896 0.023643194 0.1652856 0.057541993 -0.0757574 -0.05050332 -0.07534369 0.09998946 -0.045142222 0.090351805 0.091819786 -0.041475903 -0.050602205 0.01938939 0.14517158 -0.21560882 -0.02753573 -0.03873356 0.22647734 -0.030288804 -0.032154743 0.049560808 -0.17313533 -0.10063461 0.09789605 0.15150732 -0.08659463 -0.026977174 -0.121281624 0.10838008 -0.03991509 0.0055934037 -0.21015722 -0.094188 -0.06236334 -0.04526854 0.15005022 0.18364985 -0.02827939 0.003993201 0.13560276 0.103868976 0.12343285 -0.047030944 -0.11402072 -0.0018455544 -0.032642704 0.05391011 -0.17355324 -0.13267499 0.03209338 0.21218215 -0.16945381 0.030499073 -0.068110935 0.045981098 0.015137953 -0.0127236685 -0.0058645755 -0.10743881 -0.021379089 0.037366018 0.010672189 0.08286198 0.0063594794 0.019493759 -0.11715451 -0.069668844 -0.004507749 0.09722125 0.13615517 0.07636508 0.12724318 0.067005746 0.18323025 -0.11016888 0.059257623 0.023110913 -0.05515451 -0.05404368 -0.12866043 0.13508478 -0.17055836 -0.16142225 0.078649506 0.029448206 -0.15469654 0.10596689 0.08745112 -0.1816544 -0.10115002 0.10037129 -0.20965429 -0.031497166 -0.11579208 0.1085053
23 -0.07509304 0.07635648 0.039107807 -0.13341017 0.067243956 0.3016547 -0.070000246 0.03194297 -0.037940133 0.12262521 0.038300555 -0.14571466 0.016325144 -0.14017884 -0.0060896045 -0.2504485 -0.139478 0.0018153882 0.13013403 0.06603037 -0.032266624 0.1485661 0.020933287 -0.074941866 -0.06502023 0.05778769 0.051713306 -0.12969354 -0.051096816 -0.04826475 -0.036037095 -0.11304869 0.07681705 0.032195713 0.16650465 0.06356593 -0.07205123 -0.041484177 -0.08305484 0.099300854 -0.054180317 0.09671171 0.09187169 -0.035771172 -0.047685347 0.027277859 0.15618584 -0.21249783 -0.035006322 -0.03630671 0.2259253 -0.023968637 -0.03211709 0.056853782 -0.18087146 -0.10114659 0.09135421 0.15259069 -0.078835666 -0.018572932 -0.12483871 0.102548726 -0.059075445 -0.001184798 -0.21259807 -0.084712975 -0.068820894 -0.033334322 0.15375443 0.17732102 -0.037462983 0.0015773578 0.13470772 0.09799383 0.11429426 -0.048076283 -0.12473339 -0.0071773767 -0.037379034 0.026169593 -0.1795861 -0.13498263 0.040234268 0.21733838 -0.16772486 0.018011156 -0.078525856 0.05523429 0.0217213 -0.015981095 0.010173466 -0.11080166 -0.033700377 0.025280789 -0.0026886712 0.059311654 0.014678899 0.013586919 -0.123851046 -0.06502568 0.00239556 0.09547807 0.15101346 0.08092955 0.14205886 0.05919221 0.18237364 -0.11530105 0.05251586 0.031661462 -0.059030868 -0.042007443 -0.11824456 0.13181151 -0.17057145 -0.17366311 0.072814226 0.021521641 -0.16015336 0.10305765 0.099695735 -0.18259826 -0.08995958 0.0964205 -0.20413932 -0.028419726 -0.13366023 0.097923994
18 -0.08794777 0.07970993 0.059370555 -0.17629017 0.07619905 0.32595742 -0.010023968 -0.049736023 0.007028689 0.118495286 0.0677765 -0.14917812 -0.030740337 -0.15634885 0.020815406 -0.1774189 -0.05088571 0.043518197 0.12358332 0.009926089 -0.05187773 0.18567416 0.05319137 -0.020212896 -0.06271981 0.047392868 -0.027497284 -0.06876621 0.02989873 -0.08198922 0.06675374 -0.05302428 0.130762 -0.013367271 0.14762029 0.03020001 -0.096785195 -0.091864794 -0.04960672 0.067603886 -0.017139755 0.07399883 0.100155346 -0.055090275 -0.074681886 -0.027291575 0.093322225 -0.23920615 -0.0059329756 -0.027763436 0.22620687 -0.06838872 -0.06346002 0.045132205 -0.1430401 -0.10181306 0.12797455 0.14287479 -0.14141423 -0.055884585 -0.12072985 0.13161469 0.03291434 0.032213487 -0.15876004 -0.12615293 -0.031385906 -0.09530891 0.10936747 0.22129269 -0.029311253 -0.013814088 0.11601186 0.13496934 0.16138518 -0.014529618 -0.037068654 -0.0026299988 0.025717676 0.17779826 -0.13537158 -0.11003154 0.02075014 0.1680753 -0.2054855 0.071166694 -0.0011588255 0.0030623788 -0.0029539617 -0.02010283 -0.071738206 -0.117548674 0.047551993 0.07410979 0.08050004 0.15746261 -0.01705135 0.036138173 -0.1132271 -0.092672706 -0.036592126 0.09866498 0.0451892 0.047810774 0.059394684 0.07028328 0.17877963 -0.09526978 0.073285356 -0.011589813 -0.03428097 -0.14394978 -0.16241775 0.121818535 -0.15419984 -0.07483327 0.13228333 0.05996943 -0.13850123 0.15218776 0.057196144 -0.21040472 -0.17677021 0.12528156 -0.23135342 -0.027464494 -0.010942518 0.18050967
12 -0.086373925 0.075382255 0.04943568 -0.16290443 0.07318593 0.31844726 -0.027934613 -0.026695741 -0.00943181 0.116141535 0.059096858 -0.15304336 -0.018729515 -0.15270877 0.008693403 -0.2000674 -0.078873456 0.033312593 0.12642024 0.025402911 -0.046829004 0.17873839 0.04810209 -0.033211693 -0.060630154 0.05519944 -0.0014600998 -0.08748952 0.009508786 -0.07465898 0.032465115 -0.07136285 0.113688566 -0.005121532 0.15135673 0.037674837 -0.08970833 -0.077674344 -0.054409295 0.07938793 -0.028451433 0.07848888 0.098404534 -0.04663941 -0.06369924 -0.0074857376 0.104137 -0.22532837 -0.018917425 -0.029290862 0.2259262 -0.05551276 -0.0528626 0.04596444 -0.14954413 -0.10097354 0.11427061 0.14497639 -0.12291493 -0.044853017 -0.123884 0.12034365 0.009336373 0.021433407 -0.17572784 -0.11290867 -0.03800591 -0.0743253 0.11966852 0.20297973 -0.025652416 -0.008604859 0.1194161 0.12004284 0.1428981 -0.028283345 -0.05903471 -0.003697026 0.009685747 0.13374698 -0.14762254 -0.11411045 0.025715861 0.17658804 -0.18514325 0.06008005 -0.018062405 0.017371535 0.0037310498 -0.012420227 -0.04800955 -0.11002721 0.028582875 0.058436137 0.05031365 0.12604883 -0.009198961 0.030303365 -0.11257771 -0.08258858 -0.024505593 0.09597575 0.073561415 0.05640097 0.07934647 0.067615725 0.17649081 -0.09496212 0.067339905 0.003592622 -0.04203508 -0.11316509 -0.1494263 0.12352447 -0.15555762 -0.10190878 0.11094537 0.05076219 -0.14039709 0.13701385 0.06671905 -0.19511089 -0.14268294 0.11190772 -0.21970059 -0.02471918 -0.042910658 0.15580948
